// Generated by scripts/train_inference_world_model.mjs
export const inferenceWorldModelWeights = {"w1":[[-0.20542779968000754,0.5012495680362139,0.18155385842981522,-0.3420739064615991,0.2988763150216173,-0.5184968493070593,0.21602553132313976,-0.14272599139315847,-0.10897169076232664,0.1432247888260642,0.2643783376002406,0.07729938805949405,0.005162661630063831,0.14300197531512593,-0.09767491830646743,-0.017863659616988634,0.015703295151965016,-0.023838289546219225,0.08977599804068094],[-0.7711716163062635,0.59441939782509,0.44350186765772076,0.35233579338234416,0.062373183147957034,0.19006975171302992,0.39497726630723984,-0.046990767253029406,-0.4139402165281609,0.026964697312325373,0.5593875816037123,-0.07225383995413488,0.005935263866755405,-0.06663899957728393,-0.1521097652213977,-0.10951385925162464,-0.06805357635116012,-0.13305506883889484,-0.2761280465222795],[0.36810075310138196,-0.35209035830820984,0.392074106896088,0.23258594361336754,0.38308587046392584,0.29538012343426057,0.040257128615440424,-0.1454267555318045,-0.29648328073537644,0.08880436464861496,0.3923332967953266,0.035548576660790226,-0.03642883120884892,0.036056376316599296,-0.29175897762842673,-0.2670211760791379,-0.1020879458156971,-0.2816021114687409,0.02043393781255824],[0.21033667722288463,-0.37294310265901726,0.128808252632475,-0.018993003748701012,0.41805730158019,-0.047008233451200004,0.16108567064670595,-0.08351474449484987,0.0105249971224745,0.06548466563680122,0.29556180313113134,-0.0732294372886396,0.04450518658173774,-0.06591916071544102,-0.018118711727556747,0.012840405713370534,0.04493733822653061,-0.03216092861017699,0.16896318172193467],[0.36048145834709067,0.20168977305081362,0.13984632221121443,0.0802248782766573,-0.6696707842558116,0.023924817776373012,0.18435612964877712,0.09610416329978082,-0.22030149902376586,0.05747584244879476,0.18516054782642533,-0.015335250079886063,0.05492990302229394,0.0059728641533687175,0.08168297634093959,0.04639081390053105,-0.050673733406667,0.11061886205458217,-0.20918986971287423],[0.005773804367280937,0.055033704805509315,0.19865474516828888,0.05447101649124231,-0.014480187373129262,-0.29575124092888777,0.11298796509718957,0.059222018702648836,0.19671556544438282,0.19048957360878205,0.1875031638870669,0.09739009330748247,0.12374905322934299,0.10787092044153168,0.11031835986153186,0.10234742954530747,0.11985556749320468,0.05192620294134216,0.09170784403482198],[-0.6757144039330126,-0.3786636607203764,0.1810787396357099,-0.7909211478172212,0.7222064097377474,-0.413192985581218,0.32287931979179374,-0.12065918771165478,-0.05544146822456519,0.05113003471092119,0.1946815897499237,0.0951024414443999,-0.04146546002366183,-0.026697965937760425,0.17285428131980846,0.021145292301950516,0.11097430117453444,0.1274580573479985,-0.6919767867219395],[-0.05469410627512442,0.4873968349369263,-0.32818585472225625,0.26079886728260904,-0.3649577267323261,0.1634921120895828,-0.05312636536800714,-0.1737602430751832,0.06103828174415828,-0.32665322249466755,-0.26026499117346624,0.14195785883552098,0.05107847464408834,0.008669310184704149,-0.02220122269103513,-0.05180177381896545,-0.12972008707108512,-0.15180993371660711,0.09074535569341383],[-0.40762491331367173,0.6625575345200171,-0.2479958843963922,0.3337726738953998,-0.38131929250956664,0.11260800200441533,-0.16168020063668972,0.13145072156324888,-0.019132898894440743,0.15024686887459468,-0.26308492901905334,-0.08145288626572049,-0.03262175444716692,-0.01562232498359115,-0.08588744764656422,0.027183549785334955,-0.004212550406682246,-0.08709507708363638,0.23072752885071263],[-0.07770568760236515,-0.40105912873089855,-0.05099267670803546,0.3516777750037671,0.07971259065763481,-0.013106103701082636,-0.040263123107242685,0.02917468499586055,0.06009605215534489,0.2312499951090946,-0.05486567422699294,-0.04595187079522109,-0.01551457048467855,0.017458930281988624,-0.07455655697074609,0.06578081478698898,0.080645269808393,0.11523310907189163,0.18587621346459776],[0.7198381712706293,-0.7712495599502965,0.035711578069216404,-0.5178259553942731,-0.3077073869219678,-0.07928484391037811,0.32874033611860676,-0.035475420931452326,-0.011087467679805852,-0.0016484244229201688,0.0740570566387798,-0.32896048234983805,-0.04756017689055766,-0.09317065418230021,0.09499679791361276,0.1624261203132686,0.07280234628167026,0.1684973216102876,-0.2704733968026067],[-0.02932794523571609,-0.28393844699630294,0.14899227477506696,0.07627926341661138,0.18810778639844256,-0.16431850934150463,0.08599441214440762,-0.13776007378597924,0.19376197348675833,0.31754818638328763,0.11287711719719237,-0.1428285735169228,-0.024900120898316277,0.2409430228284231,0.11809028152390517,0.19548577165283632,-0.04838717724887944,0.16150854630812472,0.2650457856668119],[0.05405717942788086,0.08415287381264502,0.21519761281167224,-0.14613318564773728,0.13167686261526854,-0.34856133088593705,-0.038147558800944247,-0.07849758650543585,0.3513917154685427,0.10046073124694606,0.26601070608026006,-0.009324105358437756,-0.0030106672541996868,0.1833256893724642,0.01268930896110789,0.1256390249535456,0.0021677804315459203,0.13452876654988474,0.21958459568104874],[-0.07835066431695765,-0.22206866864787633,0.04739147498472418,-0.4101377817124847,0.23351668344048918,-0.4259664731807065,0.02969750108128658,0.17187512883300715,-0.0043345262900758245,-0.06062149177457273,0.029676609172335586,0.052135493897682184,-0.018615931387408344,0.11052920909513388,0.16115309955893187,0.2937438149025536,0.10862545618724928,0.22320985771986784,-0.3206771370717668],[0.5686890441466526,0.34369503135284624,0.16630927592874445,-0.08512526944556331,-0.7731846288005768,-0.10116834112974486,0.21309598391371595,-0.2453729574104054,-0.002826088355514444,-0.04770706658515901,0.0859451911016788,0.029428661255844153,-0.029289222955859687,0.06421550558774526,0.07883538097357148,0.09612925611833434,0.08214130703932548,-0.06268096803902948,-0.19887825825056776],[0.5835032002256761,0.2562961880834737,0.1450089527616184,-0.718765945054198,-0.16759735633352257,-0.2767722464366833,0.2793183835076554,0.058223198061800735,-0.4046974165744374,-0.14992394415361324,0.2769693684790401,0.16643102942946641,-0.027708204996664414,-0.2452182680073233,-0.04494321573459881,-0.1996283018722832,0.007727133345653021,-0.11058005144603789,0.09611469166171531],[0.11550228314725756,0.16590846544943144,0.06726480566560357,0.7617623820472473,-0.05798533947580859,0.6672016144866859,0.1649240980696591,-0.43425009770889306,-0.24949111572783153,-0.2838960518746471,0.10425050354748468,-0.13025593830352036,-0.031037200876419587,0.04945830055582278,-0.2808560769436747,-0.37613422921188616,-0.1727643296117812,-0.20778956406923835,-0.033854961288739105],[-0.5996966464293975,0.02858935317173809,-0.15098442565769807,0.2225869792091405,-0.3626688441864113,0.029462602659962138,-0.046245677801371274,0.08800553716059975,0.13025422180584886,-0.08490764983415718,-0.14222722114000924,-0.10853080228811073,-0.06341148892971639,-0.11197330211881851,0.1030804159914382,0.2877919941768015,0.17702712006881907,0.1462430174033642,-0.000059963966104984534],[0.5684720426880617,-0.5747721345482109,0.1519992375292256,-1.2777917104562502,-0.42352885905184556,-0.873863730935541,0.31776081846718773,-0.13215249532774928,-0.5651656104956904,0.22380626511655632,0.5405835202875461,-0.15511454357163584,-0.026654382522798885,0.062446752942852964,-0.15878011459115926,-0.21918213118737928,-0.11850827369189129,-0.056983121406545455,0.18492543840172476],[0.11876197677883356,-0.6395661512069564,-0.03733378192343239,0.5787844372670055,0.24820304055611647,0.3548783974521387,-0.015969617453286972,-0.006800943347629363,-0.244408462085469,-0.04499346087531428,-0.040557530560974706,-0.08177430635136117,-0.009900360800400954,-0.08754377799802578,-0.06650114577835337,-0.14745889836937393,-0.13329815762170427,-0.017107582971884205,0.1958741697579156],[0.4634704228089541,-0.7778748654175196,-0.12152405237242393,-0.09003712535296646,-0.09455268087733794,-0.03561594717421904,-0.028137441764483736,0.156927201711266,0.0895044872844788,0.041654069201762824,-0.2788341959507544,0.11982294865896713,0.002203488990094593,0.09538029154407063,0.01822975468773479,0.17506259674459043,0.1416855680614159,0.08844637520464672,-0.0019556163203647064],[0.5492656312214222,-0.45182666486290046,0.2093296532417426,-1.1110913643211908,-0.3893430992365519,-0.7400162822530525,0.16686143649128338,-0.0585725159906961,-0.4544326832023361,-0.006760411083139646,0.5236040931581953,-0.2228162951677748,-0.0112964362587851,-0.027868060329880623,-0.17086148528639555,-0.264731442253132,-0.1679622064939462,-0.1067388833184731,0.2828724548464742],[-0.8368300857793607,-0.1193206544262697,-0.4987013976077132,-0.3599161548245094,0.767871320543015,-0.25867015934478,-0.44178901306433493,-0.07948773064088746,0.20752880623184913,0.4486831054694717,-0.21050931704220915,0.14584888120448175,0.030173512468929433,0.27945582153061055,-0.18509275819765855,-0.31009864287840233,-0.021685517423944846,-0.17240770378286488,0.06025425895304321],[-0.43842520866475937,-0.2148395960801174,-0.336118375092692,0.043815069651654326,0.07961888786770036,-0.04579322283004345,-0.17623913097471586,0.09299468936646473,0.18174917207205993,-0.04664765715120484,-0.3460722145857093,-0.0934516559791703,0.06995305344600652,0.09193104671427828,0.11432238719565617,0.20333151948961642,0.12833724357956353,0.05243152285606069,0.12507316984837272]],"b1":[0.001443662461146818,-0.1868253190257215,-0.4834274958464097,-0.03880055379724295,0.12324499268406269,0.2241231833637593,0.1867172379675984,-0.19723023715164748,-0.06728710726947672,0.04691841421038912,0.1830873823661345,0.15123413772501532,0.15304490174042504,0.31471772067972903,0.11873420994154424,-0.14067313218535288,-0.4509702870916949,0.30662755182373197,-0.3099291621180301,-0.2915292472751536,0.13042620282228842,-0.33744930162056946,-0.4166252389958961,0.2224831975166107],"w2":[[-0.3757659579268401,-0.6197334083337,0.4167334723791519,-0.09490967282968096,0.5363226903120593,-0.1617807797940956,-1.3455635431441901,0.28440208896654284,-0.06802560264835911,0.006959488223602974,0.5590606426841863,-0.18255885023496835,-0.09723891182699919,-0.37038217844958,0.8917304693426372,0.4175212420472976,0.122449782523641,-0.603353269698397,0.3953620814715013,0.1342884582128931,0.4104651973069884,0.25077430623842056,-0.7702429087752868,-0.5127026733892772],[0.22606313567795405,0.9912589067777671,-0.39996910951852194,-0.6800938098977952,0.309255053002005,-0.3610574116756807,-0.14424520956394535,0.7909826728610898,0.8862215813450243,-0.44425082795093523,-0.976248576942299,-0.6496379692267538,-0.4056698292771695,-0.39526311196408837,0.2603630790134584,0.13395332920492858,0.7536714571955324,0.24569930200862988,-0.8545071931411617,-0.5312294097033866,-0.8988535186389919,-0.7088012440602871,0.1368654914171314,-0.13627464668812553],[0.7915808874823765,0.560330412902485,0.913368594210121,0.7067253981918651,0.12320040498572155,0.5107937049208291,-0.22110014939949163,-0.6182733137560027,-0.4930930144715293,-0.09303737717813026,-0.04615374076384765,0.31678628262542263,0.6147146134842085,0.0012401636259280408,0.2306589352575968,0.5268306123261233,0.023400373074291183,-0.6461776519331228,0.3077135955219208,0.03289789279615788,-0.2346361844158017,0.5073623917739729,-0.4941199846579558,-0.6786189947924823],[-0.13800183800789015,0.6353433468755668,0.3444630128845685,-0.033780968197597204,0.015457737278679596,-0.006593491953488125,-0.49935878610574286,0.2558977159183634,0.5459780518962687,0.36346564286724004,-0.46424329915641727,0.22272436250353353,-0.1318820373140239,-0.6758694550747315,-0.13479338866913498,-0.7461305415993187,0.9568691072528707,0.33171363940748927,-0.7196878089688018,0.7004699745433273,-0.13889744845027882,-0.7911153364256688,-0.3834193008608229,0.08303269812381019],[0.03927250520315656,0.40375349526081694,0.5390009579278352,0.15727436231929856,-0.655720366823555,-0.31256217018858173,0.38848190594221915,0.022796660541955543,-0.127788777613815,0.12876116393490547,-0.5983150404739503,-0.24060331771210844,-0.3546115469027906,-0.05877481867400365,-0.7603784343611732,-0.6668111141695443,0.33305448865902004,-0.3584329315270904,-0.9950666032616442,0.35108514586919554,-0.2881512798779205,-0.9226966614934768,1.0570795689010635,-0.041510445727059975],[-0.7454516579578679,0.3638743067695614,0.37192419416609773,-0.24865574332960624,0.33894348206397046,-0.5249257239034508,-0.00629903147757716,0.169416620565302,-0.0854444174331888,-0.033885152117848254,0.19959111623074374,-0.5197275075188,-0.640326385520532,-0.2982385698334221,-0.07214570472286003,-0.325383999010741,1.0180441639143232,0.0842029199918112,-1.0923474906311936,0.4926075281172406,0.029326805895399214,-0.7902678336419523,-0.07679801439654046,-0.15702984979367607]],"b2":[-0.35108347775518023,-0.7691385713226729,0.3732286998177323,-0.054528915784586234,-0.7415314439937872,-0.8277381495513517],"meta":{"architecture":"19→24→6 next-state MLP","parameters":630,"source":"bootstrap_synthetic","transitions":10800,"validationRmse":0.02269,"trainedAt":"2026-07-20T07:55:46.648Z"}} as const;
